digraph Tree {
node [shape=box] ;
0 [label="CAR_AGE <= 1.5\nentropy = 0.775\nsamples = 10122\nvalue = [7812, 2310]"] ;
1 [label="entropy = 0.309\nsamples = 2997\nvalue = [2831, 166]"] ;
0 -> 1 [labeldistance=2.5, labelangle=45, headlabel="True"] ;
2 [label="CAR_AGE <= 2.5\nentropy = 0.882\nsamples = 7125\nvalue = [4981, 2144]"] ;
0 -> 2 [labeldistance=2.5, labelangle=-45, headlabel="False"] ;
3 [label="ALL_BUYINS_N <= 1.5\nentropy = 0.811\nsamples = 4432\nvalue = [3326, 1106]"] ;
2 -> 3 ;
5 [label="entropy = 0.89\nsamples = 2626\nvalue = [1818, 808]"] ;
3 -> 5 ;
6 [label="entropy = 0.646\nsamples = 1806\nvalue = [1508, 298]"] ;
3 -> 6 ;
4 [label="ALL_BUYINS_N <= 3.5\nentropy = 0.962\nsamples = 2693\nvalue = [1655, 1038]"] ;
2 -> 4 ;
7 [label="entropy = 0.982\nsamples = 2278\nvalue = [1319, 959]"] ;
4 -> 7 ;
8 [label="entropy = 0.702\nsamples = 415\nvalue = [336, 79]"] ;
4 -> 8 ;
}