digraph Tree {
node [shape=box] ;
0 [label="CAR_AGE <= 1.5\nentropy = 0.775\nsamples = 10122\nvalue = [7812, 2310]"] ;
1 [label="IS_LOAN <= 0.5\nentropy = 0.309\nsamples = 2997\nvalue = [2831, 166]"] ;
0 -> 1 [labeldistance=2.5, labelangle=45, headlabel="True"] ;
2 [label="ALL_BUYINS_N <= 0.5\nentropy = 0.489\nsamples = 244\nvalue = [218, 26]"] ;
1 -> 2 ;
3 [label="entropy = 0.0\nsamples = 4\nvalue = [0, 4]"] ;
2 -> 3 ;
4 [label="CAR_PRICE <= 3.5\nentropy = 0.442\nsamples = 240\nvalue = [218, 22]"] ;
2 -> 4 ;
5 [label="ALL_BUYINS_N <= 1.5\nentropy = 0.388\nsamples = 224\nvalue = [207, 17]"] ;
4 -> 5 ;
6 [label="CAR_PRICE <= 2.5\nentropy = 0.429\nsamples = 182\nvalue = [166, 16]"] ;
5 -> 6 ;
7 [label="entropy = 0.367\nsamples = 128\nvalue = [119, 9]"] ;
6 -> 7 ;
8 [label="entropy = 0.556\nsamples = 54\nvalue = [47, 7]"] ;
6 -> 8 ;
9 [label="CUST_AGE <= 1.5\nentropy = 0.162\nsamples = 42\nvalue = [41, 1]"] ;
5 -> 9 ;
10 [label="entropy = 0.0\nsamples = 24\nvalue = [24, 0]"] ;
9 -> 10 ;
11 [label="entropy = 0.31\nsamples = 18\nvalue = [17, 1]"] ;
9 -> 11 ;
12 [label="DLRSI_CNT <= 0.5\nentropy = 0.896\nsamples = 16\nvalue = [11, 5]"] ;
4 -> 12 ;
13 [label="CUST_AGE <= 2.5\nentropy = 0.961\nsamples = 13\nvalue = [8, 5]"] ;
12 -> 13 ;
14 [label="entropy = 0.98\nsamples = 12\nvalue = [7, 5]"] ;
13 -> 14 ;
15 [label="entropy = 0.0\nsamples = 1\nvalue = [1, 0]"] ;
13 -> 15 ;
16 [label="entropy = 0.0\nsamples = 3\nvalue = [3, 0]"] ;
12 -> 16 ;
17 [label="CAR_PRICE <= 1.5\nentropy = 0.29\nsamples = 2753\nvalue = [2613, 140]"] ;
1 -> 17 ;
18 [label="BUYERPART <= 1.5\nentropy = 0.38\nsamples = 515\nvalue = [477, 38]"] ;
17 -> 18 ;
19 [label="DLRSI_CNT <= 0.5\nentropy = 0.392\nsamples = 492\nvalue = [454, 38]"] ;
18 -> 19 ;
20 [label="CUST_AGE <= 1.5\nentropy = 0.355\nsamples = 417\nvalue = [389, 28]"] ;
19 -> 20 ;
21 [label="entropy = 0.438\nsamples = 232\nvalue = [211, 21]"] ;
20 -> 21 ;
22 [label="entropy = 0.232\nsamples = 185\nvalue = [178, 7]"] ;
20 -> 22 ;
23 [label="CUST_AGE <= 2.5\nentropy = 0.567\nsamples = 75\nvalue = [65, 10]"] ;
19 -> 23 ;
24 [label="entropy = 0.534\nsamples = 74\nvalue = [65, 9]"] ;
23 -> 24 ;
25 [label="entropy = 0.0\nsamples = 1\nvalue = [0, 1]"] ;
23 -> 25 ;
26 [label="entropy = 0.0\nsamples = 23\nvalue = [23, 0]"] ;
18 -> 26 ;
27 [label="LOAN_AMOUNT <= 1.5\nentropy = 0.267\nsamples = 2238\nvalue = [2136, 102]"] ;
17 -> 27 ;
28 [label="LOAN_PERIED <= 3.5\nentropy = 0.161\nsamples = 638\nvalue = [623, 15]"] ;
27 -> 28 ;
29 [label="ALL_BUYINS_N <= 0.5\nentropy = 0.337\nsamples = 96\nvalue = [90, 6]"] ;
28 -> 29 ;
30 [label="entropy = 0.954\nsamples = 8\nvalue = [5, 3]"] ;
29 -> 30 ;
31 [label="entropy = 0.215\nsamples = 88\nvalue = [85, 3]"] ;
29 -> 31 ;
32 [label="CUST_SEX <= 1.5\nentropy = 0.122\nsamples = 542\nvalue = [533, 9]"] ;
28 -> 32 ;
33 [label="entropy = 0.162\nsamples = 379\nvalue = [370, 9]"] ;
32 -> 33 ;
34 [label="entropy = 0.0\nsamples = 163\nvalue = [163, 0]"] ;
32 -> 34 ;
35 [label="SII_CNT <= 0.5\nentropy = 0.305\nsamples = 1600\nvalue = [1513, 87]"] ;
27 -> 35 ;
36 [label="CAR_PRICE <= 2.5\nentropy = 0.318\nsamples = 1491\nvalue = [1405, 86]"] ;
35 -> 36 ;
37 [label="entropy = 0.369\nsamples = 761\nvalue = [707, 54]"] ;
36 -> 37 ;
38 [label="entropy = 0.26\nsamples = 730\nvalue = [698, 32]"] ;
36 -> 38 ;
39 [label="LOAN_PERIED <= 3.5\nentropy = 0.075\nsamples = 109\nvalue = [108, 1]"] ;
35 -> 39 ;
40 [label="entropy = 0.469\nsamples = 10\nvalue = [9, 1]"] ;
39 -> 40 ;
41 [label="entropy = 0.0\nsamples = 99\nvalue = [99, 0]"] ;
39 -> 41 ;
42 [label="CAR_AGE <= 2.5\nentropy = 0.882\nsamples = 7125\nvalue = [4981, 2144]"] ;
0 -> 42 [labeldistance=2.5, labelangle=-45, headlabel="False"] ;
43 [label="ALL_BUYINS_N <= 1.5\nentropy = 0.811\nsamples = 4432\nvalue = [3326, 1106]"] ;
42 -> 43 ;
44 [label="LOAN_PERIED <= 1.5\nentropy = 0.89\nsamples = 2626\nvalue = [1818, 808]"] ;
43 -> 44 ;
45 [label="ALL_BUYINS_N <= 0.5\nentropy = 0.991\nsamples = 326\nvalue = [181, 145]"] ;
44 -> 45 ;
46 [label="entropy = 0.0\nsamples = 29\nvalue = [0, 29]"] ;
45 -> 46 ;
47 [label="BUYERPART <= 1.5\nentropy = 0.965\nsamples = 297\nvalue = [181, 116]"] ;
45 -> 47 ;
48 [label="entropy = 0.972\nsamples = 284\nvalue = [170, 114]"] ;
47 -> 48 ;
49 [label="entropy = 0.619\nsamples = 13\nvalue = [11, 2]"] ;
47 -> 49 ;
50 [label="CAR_PRICE <= 2.5\nentropy = 0.866\nsamples = 2300\nvalue = [1637, 663]"] ;
44 -> 50 ;
51 [label="CAR_PRICE <= 1.5\nentropy = 0.901\nsamples = 1546\nvalue = [1056, 490]"] ;
50 -> 51 ;
52 [label="entropy = 0.94\nsamples = 451\nvalue = [290, 161]"] ;
51 -> 52 ;
53 [label="entropy = 0.882\nsamples = 1095\nvalue = [766, 329]"] ;
51 -> 53 ;
54 [label="F_INSORNOT <= 0.5\nentropy = 0.777\nsamples = 754\nvalue = [581, 173]"] ;
50 -> 54 ;
55 [label="entropy = 0.9\nsamples = 193\nvalue = [132, 61]"] ;
54 -> 55 ;
56 [label="entropy = 0.721\nsamples = 561\nvalue = [449, 112]"] ;
54 -> 56 ;
57 [label="CAR_PRICE <= 1.5\nentropy = 0.646\nsamples = 1806\nvalue = [1508, 298]"] ;
43 -> 57 ;
58 [label="LOAN_PERIED <= 1.5\nentropy = 0.801\nsamples = 394\nvalue = [298, 96]"] ;
57 -> 58 ;
59 [label="F_INSORNOT <= 0.5\nentropy = 0.997\nsamples = 15\nvalue = [7, 8]"] ;
58 -> 59 ;
60 [label="entropy = 0.722\nsamples = 5\nvalue = [4, 1]"] ;
59 -> 60 ;
61 [label="entropy = 0.881\nsamples = 10\nvalue = [3, 7]"] ;
59 -> 61 ;
62 [label="DLRSI_CNT <= 1.5\nentropy = 0.782\nsamples = 379\nvalue = [291, 88]"] ;
58 -> 62 ;
63 [label="entropy = 0.759\nsamples = 333\nvalue = [260, 73]"] ;
62 -> 63 ;
64 [label="entropy = 0.911\nsamples = 46\nvalue = [31, 15]"] ;
62 -> 64 ;
65 [label="LOAN_AMOUNT <= 2.5\nentropy = 0.592\nsamples = 1412\nvalue = [1210, 202]"] ;
57 -> 65 ;
66 [label="ALL_BUYINS_N <= 2.5\nentropy = 0.57\nsamples = 1313\nvalue = [1136, 177]"] ;
65 -> 66 ;
67 [label="entropy = 0.638\nsamples = 706\nvalue = [592, 114]"] ;
66 -> 67 ;
68 [label="entropy = 0.481\nsamples = 607\nvalue = [544, 63]"] ;
66 -> 68 ;
69 [label="SII_CNT <= 0.5\nentropy = 0.815\nsamples = 99\nvalue = [74, 25]"] ;
65 -> 69 ;
70 [label="entropy = 0.841\nsamples = 89\nvalue = [65, 24]"] ;
69 -> 70 ;
71 [label="entropy = 0.469\nsamples = 10\nvalue = [9, 1]"] ;
69 -> 71 ;
72 [label="ALL_BUYINS_N <= 3.5\nentropy = 0.962\nsamples = 2693\nvalue = [1655, 1038]"] ;
42 -> 72 ;
73 [label="CAR_AGE <= 3.5\nentropy = 0.982\nsamples = 2278\nvalue = [1319, 959]"] ;
72 -> 73 ;
74 [label="ALL_BUYINS_N <= 2.5\nentropy = 0.964\nsamples = 1826\nvalue = [1115, 711]"] ;
73 -> 74 ;
75 [label="LOAN_AMOUNT <= 3.5\nentropy = 0.974\nsamples = 1510\nvalue = [899, 611]"] ;
74 -> 75 ;
76 [label="entropy = 0.964\nsamples = 1303\nvalue = [796, 507]"] ;
75 -> 76 ;
77 [label="entropy = 1.0\nsamples = 207\nvalue = [103, 104]"] ;
75 -> 77 ;
78 [label="DLRSI_CNT <= 0.5\nentropy = 0.9\nsamples = 316\nvalue = [216, 100]"] ;
74 -> 78 ;
79 [label="entropy = 0.864\nsamples = 241\nvalue = [172, 69]"] ;
78 -> 79 ;
80 [label="entropy = 0.978\nsamples = 75\nvalue = [44, 31]"] ;
78 -> 80 ;
81 [label="ALL_BUYINS_N <= 0.5\nentropy = 0.993\nsamples = 452\nvalue = [204, 248]"] ;
73 -> 81 ;
82 [label="IS_LOAN <= 0.5\nentropy = 0.663\nsamples = 58\nvalue = [10, 48]"] ;
81 -> 82 ;
83 [label="entropy = 0.0\nsamples = 34\nvalue = [0, 34]"] ;
82 -> 83 ;
84 [label="entropy = 0.98\nsamples = 24\nvalue = [10, 14]"] ;
82 -> 84 ;
85 [label="CAR_PRICE <= 2.5\nentropy = 1.0\nsamples = 394\nvalue = [194, 200]"] ;
81 -> 85 ;
86 [label="entropy = 0.971\nsamples = 180\nvalue = [72, 108]"] ;
85 -> 86 ;
87 [label="entropy = 0.986\nsamples = 214\nvalue = [122, 92]"] ;
85 -> 87 ;
88 [label="CAR_AGE <= 3.5\nentropy = 0.702\nsamples = 415\nvalue = [336, 79]"] ;
72 -> 88 ;
89 [label="ALL_BUYINS_N <= 4.5\nentropy = 0.634\nsamples = 313\nvalue = [263, 50]"] ;
88 -> 89 ;
90 [label="CAR_PRICE <= 1.5\nentropy = 0.756\nsamples = 170\nvalue = [133, 37]"] ;
89 -> 90 ;
91 [label="entropy = 0.998\nsamples = 17\nvalue = [9, 8]"] ;
90 -> 91 ;
92 [label="entropy = 0.701\nsamples = 153\nvalue = [124, 29]"] ;
90 -> 92 ;
93 [label="SII_CNT <= 0.5\nentropy = 0.439\nsamples = 143\nvalue = [130, 13]"] ;
89 -> 93 ;
94 [label="entropy = 0.495\nsamples = 120\nvalue = [107, 13]"] ;
93 -> 94 ;
95 [label="entropy = 0.0\nsamples = 23\nvalue = [23, 0]"] ;
93 -> 95 ;
96 [label="ALL_BUYINS_N <= 5.5\nentropy = 0.861\nsamples = 102\nvalue = [73, 29]"] ;
88 -> 96 ;
97 [label="CAR_PRICE <= 2.5\nentropy = 0.939\nsamples = 59\nvalue = [38, 21]"] ;
96 -> 97 ;
98 [label="entropy = 0.863\nsamples = 42\nvalue = [30, 12]"] ;
97 -> 98 ;
99 [label="entropy = 0.998\nsamples = 17\nvalue = [8, 9]"] ;
97 -> 99 ;
100 [label="GLASSBUYSEPARATE_CNT <= 4.5\nentropy = 0.693\nsamples = 43\nvalue = [35, 8]"] ;
96 -> 100 ;
101 [label="entropy = 0.402\nsamples = 25\nvalue = [23, 2]"] ;
100 -> 101 ;
102 [label="entropy = 0.918\nsamples = 18\nvalue = [12, 6]"] ;
100 -> 102 ;
}